digraph Tree {
node [shape=box, fontname="helvetica"] ;
edge [fontname="helvetica"] ;
0 [label="ShelveLoc <= 2.5\ngini = 0.5\nsamples = 320\nvalue = [161, 159]"] ;
1 [label="Price <= 102.5\ngini = 0.482\nsamples = 251\nvalue = [149, 102]"] ;
0 -> 1 [labeldistance=2.5, labelangle=45, headlabel="True"] ;
2 [label="CompPrice <= 123.5\ngini = 0.425\nsamples = 75\nvalue = [23, 52]"] ;
1 -> 2 ;
3 [label="Price <= 92.5\ngini = 0.479\nsamples = 58\nvalue = [23, 35]"] ;
2 -> 3 ;
4 [label="Income <= 57.0\ngini = 0.312\nsamples = 31\nvalue = [6, 25]"] ;
3 -> 4 ;
5 [label="ShelveLoc <= 1.5\ngini = 0.5\nsamples = 8\nvalue = [4, 4]"] ;
4 -> 5 ;
6 [label="Price <= 68.0\ngini = 0.32\nsamples = 5\nvalue = [4, 1]"] ;
5 -> 6 ;
7 [label="gini = 0.0\nsamples = 1\nvalue = [0, 1]"] ;
6 -> 7 ;
8 [label="gini = 0.0\nsamples = 4\nvalue = [4, 0]"] ;
6 -> 8 ;
9 [label="gini = 0.0\nsamples = 3\nvalue = [0, 3]"] ;
5 -> 9 ;
10 [label="Price <= 85.5\ngini = 0.159\nsamples = 23\nvalue = [2, 21]"] ;
4 -> 10 ;
11 [label="gini = 0.0\nsamples = 15\nvalue = [0, 15]"] ;
10 -> 11 ;
12 [label="Advertising <= 4.0\ngini = 0.375\nsamples = 8\nvalue = [2, 6]"] ;
10 -> 12 ;
13 [label="gini = 0.0\nsamples = 2\nvalue = [2, 0]"] ;
12 -> 13 ;
14 [label="gini = 0.0\nsamples = 6\nvalue = [0, 6]"] ;
12 -> 14 ;
15 [label="Advertising <= 8.5\ngini = 0.466\nsamples = 27\nvalue = [17, 10]"] ;
3 -> 15 ;
16 [label="Urban_Yes <= 0.5\ngini = 0.397\nsamples = 22\nvalue = [16, 6]"] ;
15 -> 16 ;
17 [label="Population <= 326.0\ngini = 0.48\nsamples = 5\nvalue = [2, 3]"] ;
16 -> 17 ;
18 [label="gini = 0.0\nsamples = 2\nvalue = [2, 0]"] ;
17 -> 18 ;
19 [label="gini = 0.0\nsamples = 3\nvalue = [0, 3]"] ;
17 -> 19 ;
20 [label="Age <= 47.5\ngini = 0.291\nsamples = 17\nvalue = [14, 3]"] ;
16 -> 20 ;
21 [label="gini = 0.444\nsamples = 3\nvalue = [1, 2]"] ;
20 -> 21 ;
22 [label="gini = 0.133\nsamples = 14\nvalue = [13, 1]"] ;
20 -> 22 ;
23 [label="Age <= 67.5\ngini = 0.32\nsamples = 5\nvalue = [1, 4]"] ;
15 -> 23 ;
24 [label="gini = 0.0\nsamples = 4\nvalue = [0, 4]"] ;
23 -> 24 ;
25 [label="gini = 0.0\nsamples = 1\nvalue = [1, 0]"] ;
23 -> 25 ;
26 [label="gini = 0.0\nsamples = 17\nvalue = [0, 17]"] ;
2 -> 26 ;
27 [label="CompPrice <= 123.5\ngini = 0.407\nsamples = 176\nvalue = [126.0, 50.0]"] ;
1 -> 27 ;
28 [label="Age <= 35.0\ngini = 0.153\nsamples = 60\nvalue = [55, 5]"] ;
27 -> 28 ;
29 [label="Advertising <= 12.0\ngini = 0.463\nsamples = 11\nvalue = [7, 4]"] ;
28 -> 29 ;
30 [label="Age <= 25.5\ngini = 0.219\nsamples = 8\nvalue = [7, 1]"] ;
29 -> 30 ;
31 [label="gini = 0.0\nsamples = 1\nvalue = [0, 1]"] ;
30 -> 31 ;
32 [label="gini = 0.0\nsamples = 7\nvalue = [7, 0]"] ;
30 -> 32 ;
33 [label="gini = 0.0\nsamples = 3\nvalue = [0, 3]"] ;
29 -> 33 ;
34 [label="gini = 0.04\nsamples = 49\nvalue = [48.0, 1.0]"] ;
28 -> 34 ;
35 [label="Price <= 126.5\ngini = 0.475\nsamples = 116\nvalue = [71, 45]"] ;
27 -> 35 ;
36 [label="Advertising <= 3.5\ngini = 0.472\nsamples = 55\nvalue = [21, 34]"] ;
35 -> 36 ;
37 [label="CompPrice <= 141.5\ngini = 0.464\nsamples = 30\nvalue = [19, 11]"] ;
36 -> 37 ;
38 [label="Age <= 33.5\ngini = 0.34\nsamples = 23\nvalue = [18, 5]"] ;
37 -> 38 ;
39 [label="gini = 0.375\nsamples = 4\nvalue = [1, 3]"] ;
38 -> 39 ;
40 [label="Income <= 101.5\ngini = 0.188\nsamples = 19\nvalue = [17, 2]"] ;
38 -> 40 ;
41 [label="gini = 0.0\nsamples = 15\nvalue = [15, 0]"] ;
40 -> 41 ;
42 [label="Price <= 114.5\ngini = 0.5\nsamples = 4\nvalue = [2, 2]"] ;
40 -> 42 ;
43 [label="gini = 0.0\nsamples = 2\nvalue = [0, 2]"] ;
42 -> 43 ;
44 [label="gini = 0.0\nsamples = 2\nvalue = [2, 0]"] ;
42 -> 44 ;
45 [label="Population <= 58.0\ngini = 0.245\nsamples = 7\nvalue = [1, 6]"] ;
37 -> 45 ;
46 [label="gini = 0.0\nsamples = 1\nvalue = [1, 0]"] ;
45 -> 46 ;
47 [label="gini = 0.0\nsamples = 6\nvalue = [0, 6]"] ;
45 -> 47 ;
48 [label="Urban_Yes <= 0.5\ngini = 0.147\nsamples = 25\nvalue = [2, 23]"] ;
36 -> 48 ;
49 [label="Age <= 53.5\ngini = 0.48\nsamples = 5\nvalue = [2, 3]"] ;
48 -> 49 ;
50 [label="gini = 0.0\nsamples = 2\nvalue = [2, 0]"] ;
49 -> 50 ;
51 [label="gini = 0.0\nsamples = 3\nvalue = [0, 3]"] ;
49 -> 51 ;
52 [label="gini = 0.0\nsamples = 20\nvalue = [0, 20]"] ;
48 -> 52 ;
53 [label="Advertising <= 23.0\ngini = 0.296\nsamples = 61\nvalue = [50, 11]"] ;
35 -> 53 ;
54 [label="CompPrice <= 145.0\ngini = 0.259\nsamples = 59\nvalue = [50, 9]"] ;
53 -> 54 ;
55 [label="Advertising <= 14.5\ngini = 0.13\nsamples = 43\nvalue = [40, 3]"] ;
54 -> 55 ;
56 [label="gini = 0.051\nsamples = 38\nvalue = [37, 1]"] ;
55 -> 56 ;
57 [label="Population <= 303.5\ngini = 0.48\nsamples = 5\nvalue = [3, 2]"] ;
55 -> 57 ;
58 [label="gini = 0.0\nsamples = 2\nvalue = [0, 2]"] ;
57 -> 58 ;
59 [label="gini = 0.0\nsamples = 3\nvalue = [3, 0]"] ;
57 -> 59 ;
60 [label="Price <= 147.0\ngini = 0.469\nsamples = 16\nvalue = [10, 6]"] ;
54 -> 60 ;
61 [label="Age <= 45.0\ngini = 0.444\nsamples = 9\nvalue = [3, 6]"] ;
60 -> 61 ;
62 [label="gini = 0.0\nsamples = 4\nvalue = [0, 4]"] ;
61 -> 62 ;
63 [label="Education <= 14.5\ngini = 0.48\nsamples = 5\nvalue = [3, 2]"] ;
61 -> 63 ;
64 [label="gini = 0.0\nsamples = 3\nvalue = [3, 0]"] ;
63 -> 64 ;
65 [label="gini = 0.0\nsamples = 2\nvalue = [0, 2]"] ;
63 -> 65 ;
66 [label="gini = 0.0\nsamples = 7\nvalue = [7, 0]"] ;
60 -> 66 ;
67 [label="gini = 0.0\nsamples = 2\nvalue = [0, 2]"] ;
53 -> 67 ;
68 [label="Price <= 135.0\ngini = 0.287\nsamples = 69\nvalue = [12, 57]"] ;
0 -> 68 [labeldistance=2.5, labelangle=-45, headlabel="False"] ;
69 [label="gini = 0.074\nsamples = 52\nvalue = [2, 50]"] ;
68 -> 69 ;
70 [label="Income <= 46.0\ngini = 0.484\nsamples = 17\nvalue = [10, 7]"] ;
68 -> 70 ;
71 [label="gini = 0.0\nsamples = 6\nvalue = [6, 0]"] ;
70 -> 71 ;
72 [label="Income <= 107.0\ngini = 0.463\nsamples = 11\nvalue = [4, 7]"] ;
70 -> 72 ;
73 [label="gini = 0.346\nsamples = 9\nvalue = [2, 7]"] ;
72 -> 73 ;
74 [label="gini = 0.0\nsamples = 2\nvalue = [2, 0]"] ;
72 -> 74 ;
}